#include <iostream>
#include "optflow_base.h"

namespace optflow
{
	double OptFlowSolver::faridkernel_3x3x3_dx[27] = {
			0.02247401886, 0.0, -0.02247401886,
			0.05281651765, 0.0, -0.05281651765,
			0.02247401886, 0.0, -0.02247401886,
			0.05281651765, 0.0, -0.05281651765,
			0.12412487720, 0.0, -0.12412487720,
			0.05281651765, 0.0, -0.05281651765,
			0.02247401886, 0.0, -0.02247401886,
			0.05281651765, 0.0, -0.05281651765,
			0.02247401886, 0.0, -0.02247401886
	};

	double OptFlowSolver::faridkernel_5x5x5_dx[125] = {
			0.0001554407354,0.0003924040357,0,-0.0003924040357,-0.0001554407354,
            0.001028400264,0.002596156206,0,-0.002596156206,-0.001028400264,
            0.001759899198,0.004442796111,0,-0.004442796111,-0.001759899198,
            0.001028400264,0.002596156206,0,-0.002596156206,-0.001028400264,
            0.0001554407354,0.0003924040357,0,-0.0003924040357,-0.0001554407354,
            0.001028400264,0.002596156206,0,-0.002596156206,-0.001028400264,
            0.006803925615,0.01717624255,0,-0.01717624255,-0.006803925615,
            0.01164354291,0.02939366549,0,-0.02939366549,-0.01164354291,
            0.006803925615,0.01717624255,0,-0.01717624255,-0.006803925615,
            0.001028400264,0.002596156206,0,-0.002596156206,-0.001028400264,
            0.001759899082,0.004442796111,0,-0.004442796111,-0.001759899082,
            0.01164354291,0.02939366736,0,-0.02939366736,-0.01164354291,
            0.01992556825,0.0503013134,0,-0.0503013134,-0.01992556825,
            0.01164354291,0.02939366736,0,-0.02939366736,-0.01164354291,
            0.001759899082,0.004442796111,0,-0.004442796111,-0.001759899082,
            0.001028400264,0.002596156206,0,-0.002596156206,-0.001028400264,
            0.006803925615,0.01717624255,0,-0.01717624255,-0.006803925615,
            0.01164354291,0.02939366549,0,-0.02939366549,-0.01164354291,
            0.006803925615,0.01717624255,0,-0.01717624255,-0.006803925615,
            0.001028400264,0.002596156206,0,-0.002596156206,-0.001028400264,
            0.0001554407354,0.0003924040357,0,-0.0003924040357,-0.0001554407354,
            0.001028400264,0.002596156206,0,-0.002596156206,-0.001028400264,
            0.001759899198,0.004442796111,0,-0.004442796111,-0.001759899198,
            0.001028400264,0.002596156206,0,-0.002596156206,-0.001028400264,
            0.0001554407354,0.0003924040357,0,-0.0003924040357,-0.0001554407354};

	double OptFlowSolver::faridkernel_7x7x7_dx[343] = {
			4.151963537e-07,2.782534466e-06,4.285368959e-06,0,-4.285368959e-06,-2.782534466e-06,-4.151963537e-07,
            6.109494279e-06,4.094419273e-05,6.305796705e-05,0,-6.305796705e-05,-4.094419273e-05,-6.109494279e-06,
            2.162881356e-05,0.0001449505071,0.0002232376137,0,-0.0002232376137,-0.0001449505071,-2.162881356e-05,
            3.182646105e-05,0.0002132924274,0.0003284907143,0,-0.0003284907143,-0.0002132924274,-3.182646105e-05,
            2.162881356e-05,0.0001449505071,0.0002232376137,0,-0.0002232376137,-0.0001449505071,-2.162881356e-05,
            6.109494279e-06,4.094419273e-05,6.305796705e-05,0,-6.305796705e-05,-4.094419273e-05,-6.109494279e-06,
            4.151963537e-07,2.782534466e-06,4.285368959e-06,0,-4.285368959e-06,-2.782534466e-06,-4.151963537e-07,

            6.109494279e-06,4.094419273e-05,6.305796705e-05,0,-6.305796705e-05,-4.094419273e-05,-6.109494279e-06,
            8.989944035e-05,0.000602481945,0.0009278797079,0,-0.0009278797079,-0.000602481945,-8.989944035e-05,
            0.0003182617365,0.002132904716,0.003284876933,0,-0.003284876933,-0.002132904716,-0.0003182617365,
            0.0004683171865,0.003138536355,0.004833645653,0,-0.004833645653,-0.003138536355,-0.0004683171865,
            0.0003182617365,0.002132904716,0.003284876933,0,-0.003284876933,-0.002132904716,-0.0003182617365,
            8.989944035e-05,0.000602481945,0.0009278797079,0,-0.0009278797079,-0.000602481945,-8.989944035e-05,
            6.109494279e-06,4.094419273e-05,6.305796705e-05,0,-6.305796705e-05,-4.094419273e-05,-6.109494279e-06,

            2.162881356e-05,0.0001449505071,0.0002232376137,0,-0.0002232376137,-0.0001449505071,-2.162881356e-05,
            0.0003182617365,0.002132904949,0.003284876933,0,-0.003284876933,-0.002132904949,-0.0003182617365,
            0.001126709278,0.00755090313,0.01162911206,0,-0.01162911206,-0.00755090313,-0.001126709278,
            0.001657935092,0.01111103687,0.01711205766,0,-0.01711205766,-0.01111103687,-0.001657935092,
            0.001126709278,0.00755090313,0.01162911206,0,-0.01162911206,-0.00755090313,-0.001126709278,
            0.0003182617365,0.002132904949,0.003284876933,0,-0.003284876933,-0.002132904949,-0.0003182617365,
            2.162881356e-05,0.0001449505071,0.0002232376137,0,-0.0002232376137,-0.0001449505071,-2.162881356e-05,

            3.182646469e-05,0.0002132924128,0.0003284906852,0,-0.0003284906852,-0.0002132924128,-3.182646469e-05,
            0.0004683172156,0.003138536355,0.004833645653,0,-0.004833645653,-0.003138536355,-0.0004683172156,
            0.001657935209,0.01111103687,0.01711205766,0,-0.01711205766,-0.01111103687,-0.001657935209,
            0.002439625794,0.01634971797,0.02518012933,0,-0.02518012933,-0.01634971797,-0.002439625794,
            0.001657935209,0.01111103687,0.01711205766,0,-0.01711205766,-0.01111103687,-0.001657935209,
            0.0004683172156,0.003138536355,0.004833645653,0,-0.004833645653,-0.003138536355,-0.0004683172156,
            3.182646469e-05,0.0002132924128,0.0003284906852,0,-0.0003284906852,-0.0002132924128,-3.182646469e-05,

            2.162881356e-05,0.0001449505071,0.0002232376137,0,-0.0002232376137,-0.0001449505071,-2.162881356e-05,
            0.0003182617365,0.002132904949,0.003284876933,0,-0.003284876933,-0.002132904949,-0.0003182617365,
            0.001126709278,0.00755090313,0.01162911206,0,-0.01162911206,-0.00755090313,-0.001126709278,
            0.001657935092,0.01111103687,0.01711205766,0,-0.01711205766,-0.01111103687,-0.001657935092,
            0.001126709278,0.00755090313,0.01162911206,0,-0.01162911206,-0.00755090313,-0.001126709278,
            0.0003182617365,0.002132904949,0.003284876933,0,-0.003284876933,-0.002132904949,-0.0003182617365,
            2.162881356e-05,0.0001449505071,0.0002232376137,0,-0.0002232376137,-0.0001449505071,-2.162881356e-05,

            6.109494279e-06,4.094419273e-05,6.305796705e-05,0,-6.305796705e-05,-4.094419273e-05,-6.109494279e-06,
            8.989944035e-05,0.000602481945,0.0009278797079,0,-0.0009278797079,-0.000602481945,-8.989944035e-05,
            0.0003182617365,0.002132904716,0.003284876933,0,-0.003284876933,-0.002132904716,-0.0003182617365,
            0.0004683171865,0.003138536355,0.004833645653,0,-0.004833645653,-0.003138536355,-0.0004683171865,
            0.0003182617365,0.002132904716,0.003284876933,0,-0.003284876933,-0.002132904716,-0.0003182617365,
            8.989944035e-05,0.000602481945,0.0009278797079,0,-0.0009278797079,-0.000602481945,-8.989944035e-05,
            6.109494279e-06,4.094419273e-05,6.305796705e-05,0,-6.305796705e-05,-4.094419273e-05,-6.109494279e-06,

            4.151963537e-07,2.782534466e-06,4.285368959e-06,0,-4.285368959e-06,-2.782534466e-06,-4.151963537e-07,
            6.109494279e-06,4.094419273e-05,6.305796705e-05,0,-6.305796705e-05,-4.094419273e-05,-6.109494279e-06,
            2.162881356e-05,0.0001449505071,0.0002232376137,0,-0.0002232376137,-0.0001449505071,-2.162881356e-05,
            3.182646105e-05,0.0002132924274,0.0003284907143,0,-0.0003284907143,-0.0002132924274,-3.182646105e-05,
            2.162881356e-05,0.0001449505071,0.0002232376137,0,-0.0002232376137,-0.0001449505071,-2.162881356e-05,
            6.109494279e-06,4.094419273e-05,6.305796705e-05,0,-6.305796705e-05,-4.094419273e-05,-6.109494279e-06,
            4.151963537e-07,2.782534466e-06,4.285368959e-06,0,-4.285368959e-06,-2.782534466e-06,-4.151963537e-07};

	double OptFlowSolver::faridkernel_9x9x9_dx[729] = {1.590193643e-09,1.829164553e-08,6.172540878e-08,7.481968112e-08,0,-7.481968112e-08,-6.172540878e-08,-1.829164553e-08,-1.590193643e-09,
            3.415497929e-08,3.928771264e-07,1.32576929e-06,1.607014724e-06,0,-1.607014724e-06,-1.32576929e-06,-3.928771264e-07,-3.415497929e-08,
            1.992506071e-07,2.291935516e-06,7.734167411e-06,9.374874935e-06,0,-9.374874935e-06,-7.734167411e-06,-2.291935516e-06,-1.992506071e-07,
            5.171856969e-07,5.949072147e-06,2.00752238e-05,2.433393456e-05,0,-2.433393456e-05,-2.00752238e-05,-5.949072147e-06,-5.171856969e-07,
            7.011761909e-07,8.065474503e-06,2.721705096e-05,3.299081072e-05,0,-3.299081072e-05,-2.721705096e-05,-8.065474503e-06,-7.011761909e-07,
            5.171856969e-07,5.949072147e-06,2.00752238e-05,2.433393456e-05,0,-2.433393456e-05,-2.00752238e-05,-5.949072147e-06,-5.171856969e-07,
            1.992506071e-07,2.291935516e-06,7.734167411e-06,9.374874935e-06,0,-9.374874935e-06,-7.734167411e-06,-2.291935516e-06,-1.992506071e-07,
            3.415497929e-08,3.928771264e-07,1.32576929e-06,1.607014724e-06,0,-1.607014724e-06,-1.32576929e-06,-3.928771264e-07,-3.415497929e-08,
            1.590193643e-09,1.829164553e-08,6.172540878e-08,7.481968112e-08,0,-7.481968112e-08,-6.172540878e-08,-1.829164553e-08,-1.590193643e-09,

            3.415497574e-08,3.928771548e-07,1.325769176e-06,1.60701461e-06,0,-1.60701461e-06,-1.325769176e-06,-3.928771548e-07,-3.415497574e-08,
            7.335977443e-07,8.438411896e-06,2.847553696e-05,3.451626617e-05,0,-3.451626617e-05,-2.847553696e-05,-8.438411896e-06,-7.335977443e-07,
            4.279604582e-06,4.922733933e-05,0.0001661183342,0.0002013582707,0,-0.0002013582707,-0.0001661183342,-4.922733933e-05,-4.279604582e-06,
            1.110837366e-05,0.0001277771516,0.0004311857338,0.0005226564244,0,-0.0005226564244,-0.0004311857338,-0.0001277771516,-1.110837366e-05,
            1.506021363e-05,0.0001732342935,0.0005845814594,0.000708593172,0,-0.000708593172,-0.0005845814594,-0.0001732342935,-1.506021363e-05,
            1.110837366e-05,0.0001277771516,0.0004311857338,0.0005226564244,0,-0.0005226564244,-0.0004311857338,-0.0001277771516,-1.110837366e-05,
            4.279604582e-06,4.922733933e-05,0.0001661183342,0.0002013582707,0,-0.0002013582707,-0.0001661183342,-4.922733933e-05,-4.279604582e-06,
            7.335977443e-07,8.438411896e-06,2.847553696e-05,3.451626617e-05,0,-3.451626617e-05,-2.847553696e-05,-8.438411896e-06,-7.335977443e-07,
            3.415497574e-08,3.928771548e-07,1.325769176e-06,1.60701461e-06,0,-1.60701461e-06,-1.325769176e-06,-3.928771548e-07,-3.415497574e-08,

            1.992506071e-07,2.291935516e-06,7.734167411e-06,9.374874935e-06,0,-9.374874935e-06,-7.734167411e-06,-2.291935516e-06,-1.992506071e-07,
            4.279604582e-06,4.922733933e-05,0.0001661183342,0.0002013582707,0,-0.0002013582707,-0.0001661183342,-4.922733933e-05,-4.279604582e-06,
            2.496601883e-05,0.0002871785546,0.0009690879378,0.001174667967,0,-0.001174667967,-0.0009690879378,-0.0002871785546,-2.496601883e-05,
            6.480314914e-05,0.0007454162696,0.002515417291,0.003049031831,0,-0.003049031831,-0.002515417291,-0.0007454162696,-6.480314914e-05,
            8.785708633e-05,0.001010600594,0.003410285106,0.004133734852,0,-0.004133734852,-0.003410285106,-0.001010600594,-8.785708633e-05,
            6.480314914e-05,0.0007454162696,0.002515417291,0.003049031831,0,-0.003049031831,-0.002515417291,-0.0007454162696,-6.480314914e-05,
            2.496601883e-05,0.0002871785546,0.0009690879378,0.001174667967,0,-0.001174667967,-0.0009690879378,-0.0002871785546,-2.496601883e-05,
            4.279604582e-06,4.922733933e-05,0.0001661183342,0.0002013582707,0,-0.0002013582707,-0.0001661183342,-4.922733933e-05,-4.279604582e-06,
            1.992506071e-07,2.291935516e-06,7.734167411e-06,9.374874935e-06,0,-9.374874935e-06,-7.734167411e-06,-2.291935516e-06,-1.992506071e-07,

            5.171856401e-07,5.949072147e-06,2.00752238e-05,2.433393274e-05,0,-2.433393274e-05,-2.00752238e-05,-5.949072147e-06,-5.171856401e-07,
            1.110837366e-05,0.0001277771516,0.0004311857338,0.0005226564244,0,-0.0005226564244,-0.0004311857338,-0.0001277771516,-1.110837366e-05,
            6.480314914e-05,0.0007454162696,0.002515417291,0.003049031831,0,-0.003049031831,-0.002515417291,-0.0007454162696,-6.480314914e-05,
            0.0001682065777,0.001934842789,0.006529153325,0.00791423209,0,-0.00791423209,-0.006529153325,-0.001934842789,-0.0001682065777,
            0.0002280465997,0.00262316945,0.008851921186,0.01072974596,0,-0.01072974596,-0.008851921186,-0.00262316945,-0.0002280465997,
            0.0001682065777,0.001934842789,0.006529153325,0.00791423209,0,-0.00791423209,-0.006529153325,-0.001934842789,-0.0001682065777,
            6.480314914e-05,0.0007454162696,0.002515417291,0.003049031831,0,-0.003049031831,-0.002515417291,-0.0007454162696,-6.480314914e-05,
            1.110837366e-05,0.0001277771516,0.0004311857338,0.0005226564244,0,-0.0005226564244,-0.0004311857338,-0.0001277771516,-1.110837366e-05,
            5.171856401e-07,5.949072147e-06,2.00752238e-05,2.433393274e-05,0,-2.433393274e-05,-2.00752238e-05,-5.949072147e-06,-5.171856401e-07,

            7.01176134e-07,8.065474503e-06,2.721705096e-05,3.299081072e-05,0,-3.299081072e-05,-2.721705096e-05,-8.065474503e-06,-7.01176134e-07,
            1.506021363e-05,0.0001732342935,0.0005845814594,0.000708593172,0,-0.000708593172,-0.0005845814594,-0.0001732342935,-1.506021363e-05,
            8.785707905e-05,0.001010600477,0.003410285106,0.004133734852,0,-0.004133734852,-0.003410285106,-0.001010600477,-8.785707905e-05,
            0.0002280466142,0.00262316945,0.008851921186,0.01072974596,0,-0.01072974596,-0.008851921186,-0.00262316945,-0.0002280466142,
            0.0003091749386,0.003556370735,0.01200102083,0.01454688795,0,-0.01454688795,-0.01200102083,-0.003556370735,-0.0003091749386,
            0.0002280466142,0.00262316945,0.008851921186,0.01072974596,0,-0.01072974596,-0.008851921186,-0.00262316945,-0.0002280466142,
            8.785707905e-05,0.001010600477,0.003410285106,0.004133734852,0,-0.004133734852,-0.003410285106,-0.001010600477,-8.785707905e-05,
            1.506021363e-05,0.0001732342935,0.0005845814594,0.000708593172,0,-0.000708593172,-0.0005845814594,-0.0001732342935,-1.506021363e-05,
            7.01176134e-07,8.065474503e-06,2.721705096e-05,3.299081072e-05,0,-3.299081072e-05,-2.721705096e-05,-8.065474503e-06,-7.01176134e-07,

            5.171856401e-07,5.949072147e-06,2.00752238e-05,2.433393274e-05,0,-2.433393274e-05,-2.00752238e-05,-5.949072147e-06,-5.171856401e-07,
            1.110837366e-05,0.0001277771516,0.0004311857338,0.0005226564244,0,-0.0005226564244,-0.0004311857338,-0.0001277771516,-1.110837366e-05,
            6.480314914e-05,0.0007454162696,0.002515417291,0.003049031831,0,-0.003049031831,-0.002515417291,-0.0007454162696,-6.480314914e-05,
            0.0001682065777,0.001934842789,0.006529153325,0.00791423209,0,-0.00791423209,-0.006529153325,-0.001934842789,-0.0001682065777,
            0.0002280465997,0.00262316945,0.008851921186,0.01072974596,0,-0.01072974596,-0.008851921186,-0.00262316945,-0.0002280465997,
            0.0001682065777,0.001934842789,0.006529153325,0.00791423209,0,-0.00791423209,-0.006529153325,-0.001934842789,-0.0001682065777,
            6.480314914e-05,0.0007454162696,0.002515417291,0.003049031831,0,-0.003049031831,-0.002515417291,-0.0007454162696,-6.480314914e-05,
            1.110837366e-05,0.0001277771516,0.0004311857338,0.0005226564244,0,-0.0005226564244,-0.0004311857338,-0.0001277771516,-1.110837366e-05,
            5.171856401e-07,5.949072147e-06,2.00752238e-05,2.433393274e-05,0,-2.433393274e-05,-2.00752238e-05,-5.949072147e-06,-5.171856401e-07,

            1.992506071e-07,2.291935516e-06,7.734167411e-06,9.374874935e-06,0,-9.374874935e-06,-7.734167411e-06,-2.291935516e-06,-1.992506071e-07,
            4.279604582e-06,4.922733933e-05,0.0001661183342,0.0002013582707,0,-0.0002013582707,-0.0001661183342,-4.922733933e-05,-4.279604582e-06,
            2.496601883e-05,0.0002871785546,0.0009690879378,0.001174667967,0,-0.001174667967,-0.0009690879378,-0.0002871785546,-2.496601883e-05,
            6.480314914e-05,0.0007454162696,0.002515417291,0.003049031831,0,-0.003049031831,-0.002515417291,-0.0007454162696,-6.480314914e-05,
            8.785708633e-05,0.001010600594,0.003410285106,0.004133734852,0,-0.004133734852,-0.003410285106,-0.001010600594,-8.785708633e-05,
            6.480314914e-05,0.0007454162696,0.002515417291,0.003049031831,0,-0.003049031831,-0.002515417291,-0.0007454162696,-6.480314914e-05,
            2.496601883e-05,0.0002871785546,0.0009690879378,0.001174667967,0,-0.001174667967,-0.0009690879378,-0.0002871785546,-2.496601883e-05,
            4.279604582e-06,4.922733933e-05,0.0001661183342,0.0002013582707,0,-0.0002013582707,-0.0001661183342,-4.922733933e-05,-4.279604582e-06,
            1.992506071e-07,2.291935516e-06,7.734167411e-06,9.374874935e-06,0,-9.374874935e-06,-7.734167411e-06,-2.291935516e-06,-1.992506071e-07,

            3.415497574e-08,3.928771548e-07,1.325769176e-06,1.60701461e-06,0,-1.60701461e-06,-1.325769176e-06,-3.928771548e-07,-3.415497574e-08,
            7.335977443e-07,8.438411896e-06,2.847553696e-05,3.451626617e-05,0,-3.451626617e-05,-2.847553696e-05,-8.438411896e-06,-7.335977443e-07,
            4.279604582e-06,4.922733933e-05,0.0001661183342,0.0002013582707,0,-0.0002013582707,-0.0001661183342,-4.922733933e-05,-4.279604582e-06,
            1.110837366e-05,0.0001277771516,0.0004311857338,0.0005226564244,0,-0.0005226564244,-0.0004311857338,-0.0001277771516,-1.110837366e-05,
            1.506021363e-05,0.0001732342935,0.0005845814594,0.000708593172,0,-0.000708593172,-0.0005845814594,-0.0001732342935,-1.506021363e-05,
            1.110837366e-05,0.0001277771516,0.0004311857338,0.0005226564244,0,-0.0005226564244,-0.0004311857338,-0.0001277771516,-1.110837366e-05,
            4.279604582e-06,4.922733933e-05,0.0001661183342,0.0002013582707,0,-0.0002013582707,-0.0001661183342,-4.922733933e-05,-4.279604582e-06,
            7.335977443e-07,8.438411896e-06,2.847553696e-05,3.451626617e-05,0,-3.451626617e-05,-2.847553696e-05,-8.438411896e-06,-7.335977443e-07,
            3.415497574e-08,3.928771548e-07,1.325769176e-06,1.60701461e-06,0,-1.60701461e-06,-1.325769176e-06,-3.928771548e-07,-3.415497574e-08,

            1.590193643e-09,1.829164553e-08,6.172540878e-08,7.481968112e-08,0,-7.481968112e-08,-6.172540878e-08,-1.829164553e-08,-1.590193643e-09,
            3.415497929e-08,3.928771264e-07,1.32576929e-06,1.607014724e-06,0,-1.607014724e-06,-1.32576929e-06,-3.928771264e-07,-3.415497929e-08,
            1.992506071e-07,2.291935516e-06,7.734167411e-06,9.374874935e-06,0,-9.374874935e-06,-7.734167411e-06,-2.291935516e-06,-1.992506071e-07,
            5.171856969e-07,5.949072147e-06,2.00752238e-05,2.433393456e-05,0,-2.433393456e-05,-2.00752238e-05,-5.949072147e-06,-5.171856969e-07,
            7.011761909e-07,8.065474503e-06,2.721705096e-05,3.299081072e-05,0,-3.299081072e-05,-2.721705096e-05,-8.065474503e-06,-7.011761909e-07,
            5.171856969e-07,5.949072147e-06,2.00752238e-05,2.433393456e-05,0,-2.433393456e-05,-2.00752238e-05,-5.949072147e-06,-5.171856969e-07,
            1.992506071e-07,2.291935516e-06,7.734167411e-06,9.374874935e-06,0,-9.374874935e-06,-7.734167411e-06,-2.291935516e-06,-1.992506071e-07,
            3.415497929e-08,3.928771264e-07,1.32576929e-06,1.607014724e-06,0,-1.607014724e-06,-1.32576929e-06,-3.928771264e-07,-3.415497929e-08,
            1.590193643e-09,1.829164553e-08,6.172540878e-08,7.481968112e-08,0,-7.481968112e-08,-6.172540878e-08,-1.829164553e-08,-1.590193643e-09};
}
